digraph Tree {
node [shape=box, style="filled, rounded", color="black", fontname="helvetica"] ;
edge [fontname="helvetica"] ;
0 [label=<glucose &le; 116.5<br/>entropy = 6.681<br/>samples = 537<br/>value = [3, 12, 8, 7, 5, 3, 9, 12, 10, 12, 6, 4, 11<br/>8, 4, 9, 8, 5, 10, 2, 7, 8, 5, 9, 8, 9, 9<br/>8, 3, 6, 9, 6, 4, 4, 3, 5, 3, 4, 5, 3, 6<br/>3, 5, 4, 6, 4, 3, 8, 5, 3, 3, 4, 3, 2, 4<br/>3, 2, 2, 5, 2, 3, 4, 2, 2, 2, 2, 1, 1, 3<br/>1, 5, 1, 2, 2, 1, 4, 1, 4, 1, 3, 2, 1, 2<br/>1, 2, 1, 1, 1, 2, 2, 3, 2, 1, 1, 2, 1, 1<br/>3, 2, 3, 3, 2, 1, 2, 3, 2, 2, 3, 3, 4, 7<br/>4, 3, 4, 5, 5, 8, 4, 6, 7, 4, 7, 5, 6, 3<br/>12]<br/>class = 100>, fillcolor="#ffffff"] ;
1 [label=<glucose &le; 99.5<br/>entropy = 5.411<br/>samples = 264<br/>value = [3, 12, 8, 7, 5, 3, 9, 12, 10, 12, 6, 4, 11<br/>8, 4, 9, 8, 5, 0, 0, 0, 0, 0, 0, 0, 0, 0<br/>0, 0, 0, 0, 0, 0, 0, 0, 0, 0, 0, 0, 0, 0<br/>0, 0, 0, 0, 0, 0, 0, 0, 0, 0, 0, 0, 0, 0<br/>0, 0, 0, 0, 0, 0, 0, 0, 0, 0, 0, 0, 0, 0<br/>0, 0, 0, 0, 0, 0, 0, 0, 0, 0, 0, 0, 0, 0<br/>0, 0, 0, 0, 0, 0, 0, 0, 0, 0, 1, 2, 1, 1<br/>3, 2, 3, 3, 2, 1, 2, 3, 2, 2, 3, 3, 4, 7<br/>4, 3, 4, 5, 5, 8, 4, 6, 7, 4, 7, 5, 6, 3<br/>12]<br/>class = 100>, fillcolor="#ffffff"] ;
0 -> 1 [labeldistance=2.5, labelangle=45, headlabel="True"] ;
2 [label=<glucose &le; 88.5<br/>entropy = 4.846<br/>samples = 131<br/>value = [3, 0, 0, 0, 0, 0, 0, 0, 0, 0, 0, 0, 0, 0<br/>0, 0, 0, 0, 0, 0, 0, 0, 0, 0, 0, 0, 0, 0<br/>0, 0, 0, 0, 0, 0, 0, 0, 0, 0, 0, 0, 0, 0<br/>0, 0, 0, 0, 0, 0, 0, 0, 0, 0, 0, 0, 0, 0<br/>0, 0, 0, 0, 0, 0, 0, 0, 0, 0, 0, 0, 0, 0<br/>0, 0, 0, 0, 0, 0, 0, 0, 0, 0, 0, 0, 0, 0<br/>0, 0, 0, 0, 0, 0, 0, 0, 0, 1, 2, 1, 1, 3<br/>2, 3, 3, 2, 1, 2, 3, 2, 2, 3, 3, 4, 7, 4<br/>3, 4, 5, 5, 8, 4, 6, 7, 4, 7, 5, 6, 3, 12]<br/>class = 99>, fillcolor="#fefbf9"] ;
1 -> 2 ;
3 [label=<entropy = 4.355<br/>samples = 64<br/>value = [3, 0, 0, 0, 0, 0, 0, 0, 0, 0, 0, 0, 0, 0<br/>0, 0, 0, 0, 0, 0, 0, 0, 0, 0, 0, 0, 0, 0<br/>0, 0, 0, 0, 0, 0, 0, 0, 0, 0, 0, 0, 0, 0<br/>0, 0, 0, 0, 0, 0, 0, 0, 0, 0, 0, 0, 0, 0<br/>0, 0, 0, 0, 0, 0, 0, 0, 0, 0, 0, 0, 0, 0<br/>0, 0, 0, 0, 0, 0, 0, 0, 0, 0, 0, 0, 0, 0<br/>0, 0, 0, 0, 0, 0, 0, 0, 0, 1, 2, 1, 1, 3<br/>2, 3, 3, 2, 1, 2, 3, 2, 2, 3, 3, 4, 7, 4<br/>3, 4, 5, 0, 0, 0, 0, 0, 0, 0, 0, 0, 0, 0]<br/>class = 84>, fillcolor="#fef8fa"] ;
2 -> 3 ;
4 [label=<entropy = 3.36<br/>samples = 67<br/>value = [0, 0, 0, 0, 0, 0, 0, 0, 0, 0, 0, 0, 0, 0<br/>0, 0, 0, 0, 0, 0, 0, 0, 0, 0, 0, 0, 0, 0<br/>0, 0, 0, 0, 0, 0, 0, 0, 0, 0, 0, 0, 0, 0<br/>0, 0, 0, 0, 0, 0, 0, 0, 0, 0, 0, 0, 0, 0<br/>0, 0, 0, 0, 0, 0, 0, 0, 0, 0, 0, 0, 0, 0<br/>0, 0, 0, 0, 0, 0, 0, 0, 0, 0, 0, 0, 0, 0<br/>0, 0, 0, 0, 0, 0, 0, 0, 0, 0, 0, 0, 0, 0<br/>0, 0, 0, 0, 0, 0, 0, 0, 0, 0, 0, 0, 0, 0<br/>0, 0, 0, 5, 8, 4, 6, 7, 4, 7, 5, 6, 3, 12]<br/>class = 99>, fillcolor="#fdf6f2"] ;
2 -> 4 ;
5 [label=<glucose &le; 107.5<br/>entropy = 3.984<br/>samples = 133<br/>value = [0, 12, 8, 7, 5, 3, 9, 12, 10, 12, 6, 4, 11<br/>8, 4, 9, 8, 5, 0, 0, 0, 0, 0, 0, 0, 0, 0<br/>0, 0, 0, 0, 0, 0, 0, 0, 0, 0, 0, 0, 0, 0<br/>0, 0, 0, 0, 0, 0, 0, 0, 0, 0, 0, 0, 0, 0<br/>0, 0, 0, 0, 0, 0, 0, 0, 0, 0, 0, 0, 0, 0<br/>0, 0, 0, 0, 0, 0, 0, 0, 0, 0, 0, 0, 0, 0<br/>0, 0, 0, 0, 0, 0, 0, 0, 0, 0, 0, 0, 0, 0<br/>0, 0, 0, 0, 0, 0, 0, 0, 0, 0, 0, 0, 0, 0<br/>0, 0, 0, 0, 0, 0, 0, 0, 0, 0, 0, 0, 0, 0<br/>0]<br/>class = 100>, fillcolor="#ffffff"] ;
1 -> 5 ;
6 [label=<entropy = 2.896<br/>samples = 66<br/>value = [0, 12, 8, 7, 5, 3, 9, 12, 10, 0, 0, 0, 0, 0<br/>0, 0, 0, 0, 0, 0, 0, 0, 0, 0, 0, 0, 0, 0<br/>0, 0, 0, 0, 0, 0, 0, 0, 0, 0, 0, 0, 0, 0<br/>0, 0, 0, 0, 0, 0, 0, 0, 0, 0, 0, 0, 0, 0<br/>0, 0, 0, 0, 0, 0, 0, 0, 0, 0, 0, 0, 0, 0<br/>0, 0, 0, 0, 0, 0, 0, 0, 0, 0, 0, 0, 0, 0<br/>0, 0, 0, 0, 0, 0, 0, 0, 0, 0, 0, 0, 0, 0<br/>0, 0, 0, 0, 0, 0, 0, 0, 0, 0, 0, 0, 0, 0<br/>0, 0, 0, 0, 0, 0, 0, 0, 0, 0, 0, 0, 0, 0]<br/>class = 100>, fillcolor="#ffffff"] ;
5 -> 6 ;
7 [label=<entropy = 3.07<br/>samples = 67<br/>value = [0, 0, 0, 0, 0, 0, 0, 0, 0, 12, 6, 4, 11, 8<br/>4, 9, 8, 5, 0, 0, 0, 0, 0, 0, 0, 0, 0, 0<br/>0, 0, 0, 0, 0, 0, 0, 0, 0, 0, 0, 0, 0, 0<br/>0, 0, 0, 0, 0, 0, 0, 0, 0, 0, 0, 0, 0, 0<br/>0, 0, 0, 0, 0, 0, 0, 0, 0, 0, 0, 0, 0, 0<br/>0, 0, 0, 0, 0, 0, 0, 0, 0, 0, 0, 0, 0, 0<br/>0, 0, 0, 0, 0, 0, 0, 0, 0, 0, 0, 0, 0, 0<br/>0, 0, 0, 0, 0, 0, 0, 0, 0, 0, 0, 0, 0, 0<br/>0, 0, 0, 0, 0, 0, 0, 0, 0, 0, 0, 0, 0, 0]<br/>class = 108>, fillcolor="#fffefb"] ;
5 -> 7 ;
8 [label=<glucose &le; 139.5<br/>entropy = 5.943<br/>samples = 273<br/>value = [0, 0, 0, 0, 0, 0, 0, 0, 0, 0, 0, 0, 0, 0<br/>0, 0, 0, 0, 10, 2, 7, 8, 5, 9, 8, 9, 9, 8<br/>3, 6, 9, 6, 4, 4, 3, 5, 3, 4, 5, 3, 6, 3<br/>5, 4, 6, 4, 3, 8, 5, 3, 3, 4, 3, 2, 4, 3<br/>2, 2, 5, 2, 3, 4, 2, 2, 2, 2, 1, 1, 3, 1<br/>5, 1, 2, 2, 1, 4, 1, 4, 1, 3, 2, 1, 2, 1<br/>2, 1, 1, 1, 2, 2, 3, 2, 1, 0, 0, 0, 0, 0<br/>0, 0, 0, 0, 0, 0, 0, 0, 0, 0, 0, 0, 0, 0<br/>0, 0, 0, 0, 0, 0, 0, 0, 0, 0, 0, 0, 0, 0]<br/>class = 117>, fillcolor="#fffffe"] ;
0 -> 8 [labeldistance=2.5, labelangle=-45, headlabel="False"] ;
9 [label=<glucose &le; 125.5<br/>entropy = 4.401<br/>samples = 136<br/>value = [0, 0, 0, 0, 0, 0, 0, 0, 0, 0, 0, 0, 0, 0<br/>0, 0, 0, 0, 10, 2, 7, 8, 5, 9, 8, 9, 9, 8<br/>3, 6, 9, 6, 4, 4, 3, 5, 3, 4, 5, 3, 6, 0<br/>0, 0, 0, 0, 0, 0, 0, 0, 0, 0, 0, 0, 0, 0<br/>0, 0, 0, 0, 0, 0, 0, 0, 0, 0, 0, 0, 0, 0<br/>0, 0, 0, 0, 0, 0, 0, 0, 0, 0, 0, 0, 0, 0<br/>0, 0, 0, 0, 0, 0, 0, 0, 0, 0, 0, 0, 0, 0<br/>0, 0, 0, 0, 0, 0, 0, 0, 0, 0, 0, 0, 0, 0<br/>0, 0, 0, 0, 0, 0, 0, 0, 0, 0, 0, 0, 0, 0]<br/>class = 117>, fillcolor="#fefffd"] ;
8 -> 9 ;
10 [label=<entropy = 3.08<br/>samples = 67<br/>value = [0, 0, 0, 0, 0, 0, 0, 0, 0, 0, 0, 0, 0, 0<br/>0, 0, 0, 0, 10, 2, 7, 8, 5, 9, 8, 9, 9, 0<br/>0, 0, 0, 0, 0, 0, 0, 0, 0, 0, 0, 0, 0, 0<br/>0, 0, 0, 0, 0, 0, 0, 0, 0, 0, 0, 0, 0, 0<br/>0, 0, 0, 0, 0, 0, 0, 0, 0, 0, 0, 0, 0, 0<br/>0, 0, 0, 0, 0, 0, 0, 0, 0, 0, 0, 0, 0, 0<br/>0, 0, 0, 0, 0, 0, 0, 0, 0, 0, 0, 0, 0, 0<br/>0, 0, 0, 0, 0, 0, 0, 0, 0, 0, 0, 0, 0, 0<br/>0, 0, 0, 0, 0, 0, 0, 0, 0, 0, 0, 0, 0, 0]<br/>class = 117>, fillcolor="#fefffc"] ;
9 -> 10 ;
11 [label=<entropy = 3.713<br/>samples = 69<br/>value = [0, 0, 0, 0, 0, 0, 0, 0, 0, 0, 0, 0, 0, 0<br/>0, 0, 0, 0, 0, 0, 0, 0, 0, 0, 0, 0, 0, 8<br/>3, 6, 9, 6, 4, 4, 3, 5, 3, 4, 5, 3, 6, 0<br/>0, 0, 0, 0, 0, 0, 0, 0, 0, 0, 0, 0, 0, 0<br/>0, 0, 0, 0, 0, 0, 0, 0, 0, 0, 0, 0, 0, 0<br/>0, 0, 0, 0, 0, 0, 0, 0, 0, 0, 0, 0, 0, 0<br/>0, 0, 0, 0, 0, 0, 0, 0, 0, 0, 0, 0, 0, 0<br/>0, 0, 0, 0, 0, 0, 0, 0, 0, 0, 0, 0, 0, 0<br/>0, 0, 0, 0, 0, 0, 0, 0, 0, 0, 0, 0, 0, 0]<br/>class = 129>, fillcolor="#fcfffc"] ;
9 -> 11 ;
12 [label=<glucose &le; 158.5<br/>entropy = 5.481<br/>samples = 137<br/>value = [0, 0, 0, 0, 0, 0, 0, 0, 0, 0, 0, 0, 0, 0<br/>0, 0, 0, 0, 0, 0, 0, 0, 0, 0, 0, 0, 0, 0<br/>0, 0, 0, 0, 0, 0, 0, 0, 0, 0, 0, 0, 0, 3<br/>5, 4, 6, 4, 3, 8, 5, 3, 3, 4, 3, 2, 4, 3<br/>2, 2, 5, 2, 3, 4, 2, 2, 2, 2, 1, 1, 3, 1<br/>5, 1, 2, 2, 1, 4, 1, 4, 1, 3, 2, 1, 2, 1<br/>2, 1, 1, 1, 2, 2, 3, 2, 1, 0, 0, 0, 0, 0<br/>0, 0, 0, 0, 0, 0, 0, 0, 0, 0, 0, 0, 0, 0<br/>0, 0, 0, 0, 0, 0, 0, 0, 0, 0, 0, 0, 0, 0]<br/>class = 146>, fillcolor="#fcfffe"] ;
8 -> 12 ;
13 [label=<entropy = 4.067<br/>samples = 69<br/>value = [0, 0, 0, 0, 0, 0, 0, 0, 0, 0, 0, 0, 0, 0<br/>0, 0, 0, 0, 0, 0, 0, 0, 0, 0, 0, 0, 0, 0<br/>0, 0, 0, 0, 0, 0, 0, 0, 0, 0, 0, 0, 0, 3<br/>5, 4, 6, 4, 3, 8, 5, 3, 3, 4, 3, 2, 4, 3<br/>2, 2, 5, 0, 0, 0, 0, 0, 0, 0, 0, 0, 0, 0<br/>0, 0, 0, 0, 0, 0, 0, 0, 0, 0, 0, 0, 0, 0<br/>0, 0, 0, 0, 0, 0, 0, 0, 0, 0, 0, 0, 0, 0<br/>0, 0, 0, 0, 0, 0, 0, 0, 0, 0, 0, 0, 0, 0<br/>0, 0, 0, 0, 0, 0, 0, 0, 0, 0, 0, 0, 0, 0]<br/>class = 146>, fillcolor="#f9fefc"] ;
12 -> 13 ;
14 [label=<entropy = 4.902<br/>samples = 68<br/>value = [0, 0, 0, 0, 0, 0, 0, 0, 0, 0, 0, 0, 0, 0<br/>0, 0, 0, 0, 0, 0, 0, 0, 0, 0, 0, 0, 0, 0<br/>0, 0, 0, 0, 0, 0, 0, 0, 0, 0, 0, 0, 0, 0<br/>0, 0, 0, 0, 0, 0, 0, 0, 0, 0, 0, 0, 0, 0<br/>0, 0, 0, 2, 3, 4, 2, 2, 2, 2, 1, 1, 3, 1<br/>5, 1, 2, 2, 1, 4, 1, 4, 1, 3, 2, 1, 2, 1<br/>2, 1, 1, 1, 2, 2, 3, 2, 1, 0, 0, 0, 0, 0<br/>0, 0, 0, 0, 0, 0, 0, 0, 0, 0, 0, 0, 0, 0<br/>0, 0, 0, 0, 0, 0, 0, 0, 0, 0, 0, 0, 0, 0]<br/>class = 173>, fillcolor="#fcfdff"] ;
12 -> 14 ;
}
